34 32
33 -0.26207274 0.12767465 0.45306587 0.35232052 -0.2082742 -0.05439155 0.24794804 0.20213513 0.10769806 -0.45008543 0.29708952 -0.3395434 -0.17622697 0.015170731 -0.30485454 -0.4137547 -0.16236107 -0.18395415 -0.09997665 -0.040287156 0.08657654 0.13826625 0.6081309 -0.0662932 0.2874304 0.008421398 -0.1574938 0.007204286 -0.17552045 -0.2570907 -0.010012186 0.17448539
0 -0.086493075 -0.560472 0.13954045 -0.2832515 0.044321943 -0.2762701 0.06075523 -0.2045534 -0.24901353 0.3576535 -0.1176355 0.09038349 0.0576037 -0.3032776 -0.4733373 -0.060061976 0.18857886 0.5826655 0.09725018 -0.046522178 -0.07651168 0.057951104 0.35652915 -0.16928497 -0.0031176072 0.053958256 -0.18681845 0.33209962 0.1924694 -0.10683748 -0.17246138 -0.03877327
32 -0.12252725 0.24104282 0.3357722 0.3644024 -0.17655875 -0.08534451 0.19067119 0.3003403 0.12957355 -0.6959698 0.31886488 -0.38325733 -0.127131 0.036234796 -0.29401955 -0.65441674 -0.080821306 -0.27981424 0.3833387 -0.046584804 -0.24614766 0.03451562 0.5312858 -0.03143094 -0.12055044 0.21968198 -0.2829451 0.13327892 -0.0015753887 -0.31246188 0.3431564 0.13147375
2 -0.20674686 -0.33535782 0.34665096 0.30421034 -0.24905458 -0.030073455 0.21190822 0.14473575 0.075376526 -0.15787011 -0.075307265 0.08095778 -0.09078751 -0.18597807 0.0039920676 -0.118543096 -0.37284607 0.43074778 0.0047185966 0.34901592 0.416422 0.2129974 0.14448127 -0.23111148 0.29853386 -0.06469772 0.4343851 -0.43345812 0.020469677 -0.03287436 -0.22894996 -0.05910087
1 0.11344299 0.03982321 0.51488507 -0.2263886 -0.10926258 -0.32329094 0.050641757 0.10312747 0.009026753 0.26563817 0.11697687 0.40671137 0.24425451 -0.5405526 -0.3282257 0.050072823 0.020462891 0.5646076 0.02858785 0.3085256 0.18539321 -0.02409234 0.36650097 -0.52675635 0.009808757 -0.07795152 0.199079 0.38605914 0.42352062 0.23353104 -0.19208013 0.36989355
31 -0.2899097 0.096271485 0.1932198 -0.0025647804 -0.03387105 0.13021433 0.3953197 -0.4417664 0.100501515 0.18419613 -0.07843602 -0.35338345 -0.114815265 -0.025795294 0.10093145 -0.27338096 -0.1867714 -0.26775947 0.34211177 -0.08807097 0.1888721 -0.020679105 0.4223477 0.13581936 0.3287603 -0.36777893 0.07224184 -0.2815672 0.29555312 -0.32247126 -0.29969496 0.089563504
3 0.08695599 -0.5643964 0.17649902 0.016013589 -0.1112557 -0.21729867 -0.0145599535 0.43466258 -0.14936379 0.17509629 -0.23719008 0.22066681 0.07807522 0.047355793 -0.33899602 -0.025999956 -0.039040998 0.75275755 -0.21688601 0.44985282 0.24348307 -0.09380016 0.48617554 -0.55941284 0.21424347 0.22793742 0.10689637 -0.10807939 0.057788804 -0.22239377 -0.34637004 -0.04090354
23 -0.102391794 0.2125447 0.32813433 0.60343516 -0.09774901 0.035620365 0.4782939 -0.17851952 0.045826755 -0.57351786 -0.13500293 -0.4803118 -0.050094128 0.27222025 0.21220778 -0.32530874 -0.11802567 -0.8036405 0.33408743 0.322919 0.03244786 0.11466747 0.47116476 0.18316978 0.13156782 -0.2533356 -0.17118269 0.0036500231 -0.16551244 -0.49551257 -0.33529443 0.016700394
6 -0.48658305 -0.9536075 -0.44803044 -0.29604647 0.123819515 -0.2577706 0.66682297 -0.31335768 -0.49106455 0.8274084 0.7486146 0.31699467 -0.10215994 -0.04388775 -0.28756347 0.10783549 0.34295887 0.24517299 0.06340817 -0.13659267 0.20405231 0.58284616 -0.044826657 0.18091471 -0.14355823 0.0423505 -0.46927327 0.14323407 0.060157202 -0.3736633 -0.39151293 -0.36020985
8 0.1394989 0.08200199 0.17827567 0.2719052 -0.078529924 -0.20035954 0.33742544 0.17982581 0.13039646 -0.043858297 0.47421786 -0.027496776 -0.1609904 -0.1794739 -0.2568608 -0.1539749 0.09042462 -0.09508808 0.25125155 0.37666005 0.30184546 -0.05991157 0.27009594 -0.19240554 -0.1678995 -0.07044391 0.24314094 -0.07018755 0.291171 0.0023547972 -0.022830246 0.2644138
13 0.044082977 -0.15083383 0.3404613 0.06381687 -0.13468829 -0.11397821 0.03551868 0.19395891 -0.03731223 0.07062079 0.011189151 0.12724498 0.03812916 -0.16618514 -0.13917162 0.13676715 -0.049636677 0.33966884 -0.30351812 0.34241113 0.21116719 0.046782255 0.29991534 -0.40568477 0.1809832 0.030830588 0.16704488 -0.0035303587 -0.080547884 0.015682029 -0.15513605 0.057579793
5 -0.40048656 -0.92701495 -0.33366984 -0.17217551 0.1179899 -0.17104037 0.63056874 -0.46062043 -0.2856736 0.89308023 0.4073288 0.33617282 0.25195512 -0.23700322 -0.25487325 0.33104056 0.3101187 0.20645747 0.15199798 -0.26831317 0.036968708 0.6866088 -0.07705048 -0.03833787 -0.37584102 0.045791075 -0.46435985 0.42706805 -0.11022582 -0.11667882 -0.31834674 -0.25720802
29 -0.15673868 0.4312292 0.49382123 0.7002337 -0.16272512 0.035606608 0.36208656 -0.0018048404 0.23496635 -0.40053147 0.4447555 -0.571258 0.05225787 -0.01466062 -0.011151936 0.018574536 -0.27527148 -0.84496003 -0.08130587 0.007435495 0.17101786 0.45907736 0.5151974 -0.07915948 0.036154695 0.02840178 -0.47353116 0.17670265 -0.6668575 -0.20018789 0.085285544 -0.07761426
27 -0.07951905 0.15973705 0.5676147 0.16191362 -0.06277188 0.17194782 0.41134274 -0.11003913 0.28984773 -0.116448954 -0.33355588 -0.19225658 -0.12734674 0.1801888 0.45024827 -0.14373545 -0.46019027 -0.14954492 0.3944192 -0.03458991 -0.25631094 -0.12919901 0.5110036 -0.287773 0.066617064 -0.22531119 -0.08151648 -0.13302436 -0.15350673 -0.54562813 -0.11192632 -0.23886205
30 0.012619196 0.043747984 0.43510363 0.28211588 -0.15500492 -0.21611272 -0.06511641 0.20269156 0.07205013 -0.5330366 0.1663902 -0.09872155 -0.035640176 -0.3807754 -0.20357701 -0.39108026 -0.17691697 0.1427735 0.3154649 0.27440828 0.18678188 0.23657414 0.057695825 -0.006230542 -0.050261803 0.08135865 0.2539779 -0.07072756 0.23357545 0.17238927 0.1940197 0.07363146
7 0.06330267 -0.3816119 0.3282036 0.018918334 -0.12775847 -0.17512496 0.075789094 0.21837498 -0.10480267 0.15978485 -0.10993287 0.26656404 0.13686499 -0.15344532 -0.12471676 0.15440466 0.016419563 0.54815626 -0.2710359 0.42461935 0.11224952 0.030117908 0.28476804 -0.5616035 0.0216091 0.028388642 0.22150627 0.0721648 -0.12307812 -0.021397786 -0.28377417 0.018242346
10 -0.3920756 -0.93578595 -0.46024287 -0.39037418 0.10108893 -0.27424207 0.46784386 -0.26712936 -0.44472912 0.68847096 0.34099886 0.3729581 -0.012232759 -0.035599895 -0.22978063 -0.09225183 0.38789707 0.44917822 0.22867054 -0.22732994 -0.06514876 0.33791074 -0.08767147 0.23492335 -0.16156314 0.03777247 -0.29449213 0.20615642 0.28680778 -0.35761908 -0.40149853 -0.26329514
4 -0.3118075 -0.86514306 -0.30416477 -0.18214324 0.08741451 -0.1385028 0.46456602 -0.51188856 -0.19821782 0.7491116 -0.11149932 0.3151541 0.28513741 -0.18547073 -0.14659323 0.09958728 0.2928231 0.359181 0.38238457 -0.39703175 -0.13274355 0.4157787 -0.08679641 0.066742696 -0.35572338 -0.037942287 -0.302498 0.39334905 0.105320945 -0.15603574 -0.30246624 -0.18789916
24 -0.16418682 0.09894037 0.55354065 0.28446257 0.079359055 0.10865394 0.621936 -0.86667645 -0.07185113 -0.27251193 -0.37174448 -0.17030518 -0.27537233 0.16216089 0.44429076 -0.05301185 -0.5152607 -0.3573875 0.58385015 0.05647921 0.08229877 -0.40539783 0.72027206 -0.11115514 0.37357357 -0.41160107 0.075755686 -0.18933733 -0.033161007 -0.5378939 -0.20716487 0.0028733152
25 -0.24741702 0.116933964 0.7395104 0.18936604 0.016669672 0.28525594 0.47103757 -0.68941826 0.2526811 -0.05757722 -0.43786293 -0.46540108 -0.10380995 0.02329674 0.4933336 -0.13871154 -0.50893784 -0.310354 0.5606618 -0.3355491 -0.18418775 -0.08980651 0.7599475 -0.020244425 0.21167496 -0.34025714 -0.22516987 0.0029888805 -0.21541226 -0.6225638 -0.17350753 -0.23690517
28 -0.12218406 -0.038112454 0.4373262 -0.11700557 0.039380435 0.1393912 0.121905066 -0.20731498 0.05939385 -0.09069418 -0.044021215 -0.15027867 -0.3700322 0.023471447 -0.111259796 -0.26328155 -0.3915994 0.21256365 0.067636006 -0.17210692 -0.02039053 -0.3840038 0.61021984 -0.23726374 0.3454604 -0.06542632 0.06018699 -0.29014385 0.030611739 -0.2808425 0.06634435 0.060407087
19 -0.17541638 -0.11222128 0.20543441 -0.018421622 -0.081131056 -0.15131433 0.0010527247 0.13106857 -0.058418006 -0.028058626 -0.029654915 0.07690237 0.1982819 -0.2922221 -0.20571713 -0.22645542 0.061383344 0.228469 -0.071816094 0.034925994 0.107986584 0.19610438 0.1852761 0.044129983 0.19782199 -0.06616421 0.00860566 0.30693814 0.24910057 0.05437748 -0.17107618 0.28539878
16 -0.5531482 -1.0580994 -0.43373924 -0.20939817 0.0016316081 -0.31182343 0.64076275 -0.30538437 -0.30645272 0.6941815 0.58328855 0.40757668 0.121398255 -0.16472691 -0.3455667 0.02481937 0.25118905 0.49284348 0.31845814 -0.53634083 -0.14232412 0.88688403 -0.30083737 0.14869983 -0.48834318 0.27155766 -0.5729767 0.3052002 -0.07241775 -0.2721889 -0.12993847 -0.54154265
26 -0.17599902 0.27195176 0.37594938 0.68895555 -0.11289999 0.028997222 0.20904975 0.25941774 0.20115134 -0.7038683 -0.06498073 -0.53564936 0.16727002 0.19556059 -0.07112727 -0.2514879 -0.0701931 -0.67993486 -0.26842535 0.19377725 -0.07601885 0.33414432 0.5102325 0.124400884 0.3240438 -0.08496687 -0.34015173 0.3163554 -0.5136845 -0.2210918 -0.2470199 0.14900139
14 -0.17532781 0.3536678 0.30654985 0.3373006 -0.1871849 -0.04577478 0.0473767 0.16738102 0.19542524 -0.4764476 0.40383887 -0.51075816 -0.2018792 -0.18251236 -0.37127867 -0.47221094 -0.09322802 -0.39714965 0.16713668 0.0023571558 0.26761284 0.104569316 0.3837812 0.14460428 0.1263327 0.06509127 -0.10504143 -0.09150013 0.11228178 -0.06361074 0.22824042 0.24940372
18 -0.15335643 0.3944594 0.27370876 0.4307422 -0.15225932 0.0141106155 0.16532248 0.19147994 0.21018222 -0.433943 0.4013988 -0.46601352 -0.17492442 -0.0973022 -0.22642937 -0.36385545 -0.17433254 -0.43877235 0.078553475 -0.011439117 0.20330834 0.11585761 0.35162586 0.05582616 0.11781797 0.03833514 -0.08910986 -0.15738393 -0.014768258 -0.07973841 0.2529047 0.17521222
12 0.023018554 -0.4667889 0.16833003 -0.02194985 -0.12098234 -0.18753755 0.14514746 0.0077594807 -0.23691267 0.4715863 -0.044050712 0.36380193 0.24759057 -0.25077137 -0.12261234 0.39741454 -0.018584205 0.6463177 -0.26014614 0.25479525 0.30143505 0.21124695 0.18326442 -0.4634195 0.1063102 0.10043004 0.14655104 0.11215284 -0.122240916 0.033971325 -0.27046824 -0.110589325
20 -0.18875399 0.3690381 0.3343353 0.4304603 -0.23311357 -0.0050199307 0.15228693 0.1732081 0.28183255 -0.4681291 0.38689497 -0.48686787 -0.24179831 -0.16725947 -0.28922603 -0.4650022 -0.21741895 -0.42224213 0.2519331 -0.021112623 0.22497824 0.14508331 0.35914284 0.062112 0.08937535 0.03282778 -0.084061965 -0.16891874 0.05958595 -0.09157038 0.27340764 0.18759982
21 -0.053735487 -0.42584962 0.1436849 -0.1681293 -0.08372863 -0.3058407 -0.08700747 0.11540022 -0.24506733 0.1779221 -0.22964375 0.30881888 0.3681704 -0.32478678 -0.24345903 -0.06205387 0.30964175 0.5230909 -0.0823857 0.22644442 0.006370672 0.18561901 0.14047578 -0.12136162 -0.019417614 0.030033093 -0.006252317 0.49981415 0.25356856 0.05828255 -0.38904816 0.22146045
17 -0.065590195 -0.49567416 0.08757161 -0.16714321 -0.036230512 -0.27966598 -0.064729705 0.092777975 -0.321936 0.21023688 -0.20973171 0.30659062 0.34102428 -0.24593458 -0.24912687 -0.12837222 0.34402102 0.5305014 -0.025253115 0.2908399 0.08163624 0.15310714 0.1723883 -0.012295708 0.048151158 0.029645933 0.066286676 0.4102685 0.35178605 -0.0102172 -0.41758612 0.22501418
15 -0.11481048 0.39822748 0.31580657 0.37396044 -0.18249965 -0.026825588 0.15797542 0.18119067 0.21174756 -0.46556747 0.38835767 -0.42399487 -0.22286746 -0.07782476 -0.24226744 -0.44880596 -0.1439134 -0.4349038 0.22804284 0.023135878 0.14157273 0.0051544267 0.41039667 0.045738954 0.061649717 0.039938852 -0.14489177 -0.10747377 0.05169809 -0.14069895 0.21088725 0.20597386
22 -0.15153058 0.35014564 0.2789561 0.3883686 -0.1961094 0.020023203 0.19464836 0.18595336 0.24832541 -0.4582468 0.46038085 -0.5013047 -0.27527547 -0.08077591 -0.25951824 -0.38874876 -0.17616892 -0.46815506 0.16808546 -0.028498597 0.22611332 0.10969054 0.3360467 0.1265658 0.10279568 0.03963616 -0.10406723 -0.2161365 -0.02968597 -0.12876852 0.24194375 0.11296914
9 0.0007446957 0.038155053 0.33369407 0.13498396 -0.019426655 0.038824324 0.23545352 0.29323986 0.25077808 -0.102967076 0.20986333 -0.035153873 -0.3168817 0.11107404 -0.14432934 -0.121672414 -0.25240418 0.05921462 -0.14782833 0.26190242 -0.029449295 -0.24627936 0.41931862 -0.46378577 0.06773758 -0.053442318 0.08456196 -0.28138143 -0.15341623 -0.19594774 0.009691619 0.024484545
11 -0.12601271 -0.5077452 -0.1552594 -0.20827562 0.0064426116 -0.16777372 0.14161383 -0.056183517 -0.31293014 0.4854441 -0.13641134 0.23887753 0.1425912 -0.101240404 -0.17798895 0.06811632 0.22516029 0.44902757 -0.026856635 0.07820158 0.14236772 -0.0338235 0.10145025 0.0050325477 0.11808843 -0.004082395 0.015751677 0.22070879 0.2342703 -0.07283734 -0.37470937 0.11466467
